digraph Tree {
node [shape=box, style="filled, rounded", color="black", fontname="helvetica"] ;
edge [fontname="helvetica"] ;
0 [label="petal_length <= 2.6\ngini = 0.665\nsamples = 120\nvalue = [44, 39, 37]\nclass = Iris-setosa", fillcolor="#fdf7f3"] ;
1 [label="gini = 0.0\nsamples = 44\nvalue = [44, 0, 0]\nclass = Iris-setosa", fillcolor="#e58139"] ;
0 -> 1 [labeldistance=2.5, labelangle=45, headlabel="True"] ;
2 [label="petal_length <= 4.85\ngini = 0.5\nsamples = 76\nvalue = [0, 39, 37]\nclass = Iris-versicolor", fillcolor="#f5fef9"] ;
0 -> 2 [labeldistance=2.5, labelangle=-45, headlabel="False"] ;
3 [label="petal_width <= 1.7\ngini = 0.053\nsamples = 37\nvalue = [0, 36, 1]\nclass = Iris-versicolor", fillcolor="#3ee684"] ;
2 -> 3 ;
4 [label="gini = 0.0\nsamples = 35\nvalue = [0, 35, 0]\nclass = Iris-versicolor", fillcolor="#39e581"] ;
3 -> 4 ;
5 [label="gini = 0.5\nsamples = 2\nvalue = [0, 1, 1]\nclass = Iris-versicolor", fillcolor="#ffffff"] ;
3 -> 5 ;
6 [label="petal_width <= 1.75\ngini = 0.142\nsamples = 39\nvalue = [0, 3, 36]\nclass = Iris-virginica", fillcolor="#8c49e7"] ;
2 -> 6 ;
7 [label="gini = 0.49\nsamples = 7\nvalue = [0, 3, 4]\nclass = Iris-virginica", fillcolor="#e0cef8"] ;
6 -> 7 ;
8 [label="gini = 0.0\nsamples = 32\nvalue = [0, 0, 32]\nclass = Iris-virginica", fillcolor="#8139e5"] ;
6 -> 8 ;
}